<?xml version="1.0"?>
<opencv_storage>
<stage8>
  <maxWeakCount>8</maxWeakCount>
  <stageThreshold>-9.3484264612197876e-01</stageThreshold>
  <weakClassifiers>
    <_>
      <internalNodes>
        0 -1 121335 6.0777831822633743e-04</internalNodes>
      <leafValues>
        2.4487896263599396e-01 -8.0674844980239868e-01</leafValues></_>
    <_>
      <internalNodes>
        0 -1 69823 -4.3383250012993813e-03</internalNodes>
      <leafValues>
        2.1611699461936951e-01 -7.5621354579925537e-01</leafValues></_>
    <_>
      <internalNodes>
        0 -1 127993 2.5048363022506237e-04</internalNodes>
      <leafValues>
        -6.1490744352340698e-01 2.7139997482299805e-01</leafValues></_>
    <_>
      <internalNodes>
        0 -1 159578 -3.3332436578348279e-04</internalNodes>
      <leafValues>
        -7.5581616163253784e-01 2.3621532320976257e-01</leafValues></_>
    <_>
      <internalNodes>
        0 -1 4618 -1.9829420372843742e-02</internalNodes>
      <leafValues>
        4.8283153772354126e-01 -3.7466749548912048e-01</leafValues></_>
    <_>
      <internalNodes>
        0 -1 70558 5.3327402565628290e-04</internalNodes>
      <leafValues>
        2.0003040134906769e-01 -7.9668754339218140e-01</leafValues></_>
    <_>
      <internalNodes>
        0 -1 151266 -2.1971152164041996e-03</internalNodes>
      <leafValues>
        -9.0204894542694092e-01 1.6406713426113129e-01</leafValues></_>
    <_>
      <internalNodes>
        0 -1 71252 2.2298805415630341e-03</internalNodes>
      <leafValues>
        1.5077494084835052e-01 -8.2998502254486084e-01</leafValues></_></weakClassifiers></stage8>
</opencv_storage>
