<?xml version="1.0"?>
<opencv_storage>
<stage4>
  <maxWeakCount>6</maxWeakCount>
  <stageThreshold>-1.0774137973785400e+00</stageThreshold>
  <weakClassifiers>
    <_>
      <internalNodes>
        0 -1 124244 -1.7824307084083557e-01</internalNodes>
      <leafValues>
        5.0917142629623413e-01 -6.6037738323211670e-01</leafValues></_>
    <_>
      <internalNodes>
        0 -1 89767 6.4871250651776791e-04</internalNodes>
      <leafValues>
        -6.3389474153518677e-01 2.8622928261756897e-01</leafValues></_>
    <_>
      <internalNodes>
        0 -1 80745 3.9044371806085110e-04</internalNodes>
      <leafValues>
        1.9475792348384857e-01 -8.9694553613662720e-01</leafValues></_>
    <_>
      <internalNodes>
        0 -1 80746 -6.2601111130788922e-04</internalNodes>
      <leafValues>
        -7.9267579317092896e-01 2.8939992189407349e-01</leafValues></_>
    <_>
      <internalNodes>
        0 -1 95151 6.2679676339030266e-03</internalNodes>
      <leafValues>
        -4.8288729786872864e-01 3.9652642607688904e-01</leafValues></_>
    <_>
      <internalNodes>
        0 -1 147562 -1.2283580144867301e-03</internalNodes>
      <leafValues>
        -8.4943318367004395e-01 2.1558773517608643e-01</leafValues></_></weakClassifiers></stage4>
</opencv_storage>
