<?xml version="1.0"?>
<opencv_storage>
<stage5>
  <maxWeakCount>5</maxWeakCount>
  <stageThreshold>-4.7790211439132690e-01</stageThreshold>
  <weakClassifiers>
    <_>
      <internalNodes>
        0 -1 85253 -3.5207504034042358e-01</internalNodes>
      <leafValues>
        6.0740739107131958e-01 -3.8139533996582031e-01</leafValues></_>
    <_>
      <internalNodes>
        0 -1 1613 1.0187413543462753e-02</internalNodes>
      <leafValues>
        2.4719588458538055e-01 -9.7833901643753052e-01</leafValues></_>
    <_>
      <internalNodes>
        0 -1 13011 -7.8381545608863235e-04</internalNodes>
      <leafValues>
        3.0353489518165588e-01 -5.6491130590438843e-01</leafValues></_>
    <_>
      <internalNodes>
        0 -1 143034 -1.5694983303546906e-03</internalNodes>
      <leafValues>
        -8.1970369815826416e-01 2.0367707312107086e-01</leafValues></_>
    <_>
      <internalNodes>
        0 -1 121300 -9.3758769799023867e-04</internalNodes>
      <leafValues>
        -8.5091465711593628e-01 2.0038488507270813e-01</leafValues></_></weakClassifiers></stage5>
</opencv_storage>
