<?xml version="1.0"?>
<opencv_storage>
<stage9>
  <maxWeakCount>7</maxWeakCount>
  <stageThreshold>-7.5569754838943481e-01</stageThreshold>
  <weakClassifiers>
    <_>
      <internalNodes>
        0 -1 138969 3.6414060741662979e-03</internalNodes>
      <leafValues>
        -5.3595399856567383e-01 3.1815594434738159e-01</leafValues></_>
    <_>
      <internalNodes>
        0 -1 162309 8.3646300481632352e-04</internalNodes>
      <leafValues>
        2.2368465363979340e-01 -7.9923015832901001e-01</leafValues></_>
    <_>
      <internalNodes>
        0 -1 12584 -3.3419569954276085e-03</internalNodes>
      <leafValues>
        2.2267720103263855e-01 -7.5603783130645752e-01</leafValues></_>
    <_>
      <internalNodes>
        0 -1 139198 2.1351575560402125e-04</internalNodes>
      <leafValues>
        -6.0552465915679932e-01 2.1301931142807007e-01</leafValues></_>
    <_>
      <internalNodes>
        0 -1 14356 1.4361528679728508e-02</internalNodes>
      <leafValues>
        -2.7131059765815735e-01 6.5549498796463013e-01</leafValues></_>
    <_>
      <internalNodes>
        0 -1 148183 8.9391082292422652e-04</internalNodes>
      <leafValues>
        1.5320225059986115e-01 -8.7409925460815430e-01</leafValues></_>
    <_>
      <internalNodes>
        0 -1 89691 -5.3646392188966274e-04</internalNodes>
      <leafValues>
        2.6628512144088745e-01 -5.6050503253936768e-01</leafValues></_></weakClassifiers></stage9>
</opencv_storage>
