<?xml version="1.0"?>
<opencv_storage>
<stage7>
  <maxWeakCount>7</maxWeakCount>
  <stageThreshold>-8.1947308778762817e-01</stageThreshold>
  <weakClassifiers>
    <_>
      <internalNodes>
        0 -1 162065 -1.9808457000181079e-04</internalNodes>
      <leafValues>
        -7.9580420255661011e-01 2.6041188836097717e-01</leafValues></_>
    <_>
      <internalNodes>
        0 -1 11290 -1.1445017904043198e-01</internalNodes>
      <leafValues>
        4.6090438961982727e-01 -3.6749011278152466e-01</leafValues></_>
    <_>
      <internalNodes>
        0 -1 80695 4.5625551138073206e-04</internalNodes>
      <leafValues>
        -6.6766184568405151e-01 2.8080877661705017e-01</leafValues></_>
    <_>
      <internalNodes>
        0 -1 16295 -5.0768482685089111e-01</internalNodes>
      <leafValues>
        3.5309386253356934e-01 -5.5588984489440918e-01</leafValues></_>
    <_>
      <internalNodes>
        0 -1 2807 -1.0347691923379898e-01</internalNodes>
      <leafValues>
        2.9866492748260498e-01 -6.1813193559646606e-01</leafValues></_>
    <_>
      <internalNodes>
        0 -1 11500 2.0396587206050754e-04</internalNodes>
      <leafValues>
        1.8132999539375305e-01 -7.7220326662063599e-01</leafValues></_>
    <_>
      <internalNodes>
        0 -1 157585 1.8501002341508865e-04</internalNodes>
      <leafValues>
        -6.4963763952255249e-01 2.5898346304893494e-01</leafValues></_></weakClassifiers></stage7>
</opencv_storage>
