<?xml version="1.0"?>
<opencv_storage>
<stage15>
  <maxWeakCount>10</maxWeakCount>
  <stageThreshold>-1.0352537631988525e+00</stageThreshold>
  <weakClassifiers>
    <_>
      <internalNodes>
        0 -1 5820 -9.1137727722525597e-03</internalNodes>
      <leafValues>
        3.7421602010726929e-01 -3.9340659976005554e-01</leafValues></_>
    <_>
      <internalNodes>
        0 -1 114311 -1.8819742836058140e-03</internalNodes>
      <leafValues>
        3.3922824263572693e-01 -3.9165034890174866e-01</leafValues></_>
    <_>
      <internalNodes>
        0 -1 1083 -3.8172852993011475e-01</internalNodes>
      <leafValues>
        1.8655782938003540e-01 -8.3774685859680176e-01</leafValues></_>
    <_>
      <internalNodes>
        0 -1 153116 -1.1005820706486702e-03</internalNodes>
      <leafValues>
        -5.5891472101211548e-01 2.2099944949150085e-01</leafValues></_>
    <_>
      <internalNodes>
        0 -1 147562 -7.3049671482294798e-04</internalNodes>
      <leafValues>
        -6.1118602752685547e-01 2.0527577400207520e-01</leafValues></_>
    <_>
      <internalNodes>
        0 -1 151860 3.4252036130055785e-04</internalNodes>
      <leafValues>
        -4.9360021948814392e-01 2.6074102520942688e-01</leafValues></_>
    <_>
      <internalNodes>
        0 -1 14256 1.1679427698254585e-02</internalNodes>
      <leafValues>
        -2.7151173353195190e-01 5.1117831468582153e-01</leafValues></_>
    <_>
      <internalNodes>
        0 -1 162277 7.4260082328692079e-04</internalNodes>
      <leafValues>
        1.9123297929763794e-01 -7.8676974773406982e-01</leafValues></_>
    <_>
      <internalNodes>
        0 -1 13005 -5.4518086835741997e-04</internalNodes>
      <leafValues>
        2.8959149122238159e-01 -4.4425386190414429e-01</leafValues></_>
    <_>
      <internalNodes>
        0 -1 101082 -3.4186553955078125e-01</internalNodes>
      <leafValues>
        5.3293460607528687e-01 -2.5993973016738892e-01</leafValues></_></weakClassifiers></stage15>
</opencv_storage>
