<?xml version="1.0"?>
<opencv_storage>
<stage4>
  <maxWeakCount>5</maxWeakCount>
  <stageThreshold>-9.3079370260238647e-01</stageThreshold>
  <weakClassifiers>
    <_>
      <internalNodes>
        0 -1 10814 -8.8017024099826813e-03</internalNodes>
      <leafValues>
        7.9876542091369629e-01 -3.6481481790542603e-01</leafValues></_>
    <_>
      <internalNodes>
        0 -1 144595 6.5327202901244164e-04</internalNodes>
      <leafValues>
        4.3184649944305420e-01 -8.7321215867996216e-01</leafValues></_>
    <_>
      <internalNodes>
        0 -1 100451 -2.6735682040452957e-02</internalNodes>
      <leafValues>
        5.1012617349624634e-01 -5.7611328363418579e-01</leafValues></_>
    <_>
      <internalNodes>
        0 -1 96574 -1.0107365250587463e-01</internalNodes>
      <leafValues>
        4.4608941674232483e-01 -6.5783274173736572e-01</leafValues></_>
    <_>
      <internalNodes>
        0 -1 157525 6.7477719858288765e-04</internalNodes>
      <leafValues>
        2.3612068593502045e-01 -9.4799143075942993e-01</leafValues></_></weakClassifiers></stage4>
</opencv_storage>
