<?xml version="1.0"?>
<opencv_storage>
<stage1>
  <maxWeakCount>5</maxWeakCount>
  <stageThreshold>-8.0101931095123291e-01</stageThreshold>
  <weakClassifiers>
    <_>
      <internalNodes>
        0 -1 85513 -2.2930806875228882e-01</internalNodes>
      <leafValues>
        8.9976131916046143e-01 -5.9375000000000000e-01</leafValues></_>
    <_>
      <internalNodes>
        0 -1 144399 -7.9062406439334154e-04</internalNodes>
      <leafValues>
        5.5578899383544922e-01 -9.2516207695007324e-01</leafValues></_>
    <_>
      <internalNodes>
        0 -1 120020 -1.7406303435564041e-02</internalNodes>
      <leafValues>
        6.5358567237854004e-01 -5.1462405920028687e-01</leafValues></_>
    <_>
      <internalNodes>
        0 -1 126189 -2.0816581323742867e-02</internalNodes>
      <leafValues>
        5.7615834474563599e-01 -5.8039671182632446e-01</leafValues></_>
    <_>
      <internalNodes>
        0 -1 119485 -5.3187704179435968e-04</internalNodes>
      <leafValues>
        -9.7056525945663452e-01 3.3196249604225159e-01</leafValues></_></weakClassifiers></stage1>
</opencv_storage>
