<?xml version="1.0"?>
<opencv_storage>
<stage2>
  <maxWeakCount>5</maxWeakCount>
  <stageThreshold>-6.3641768693923950e-01</stageThreshold>
  <weakClassifiers>
    <_>
      <internalNodes>
        0 -1 95204 -2.9050686955451965e-01</internalNodes>
      <leafValues>
        8.8331240415573120e-01 -4.5931282639503479e-01</leafValues></_>
    <_>
      <internalNodes>
        0 -1 143985 -2.7991826646029949e-03</internalNodes>
      <leafValues>
        -9.2741024494171143e-01 4.9066415429115295e-01</leafValues></_>
    <_>
      <internalNodes>
        0 -1 106924 -1.0102929174900055e-01</internalNodes>
      <leafValues>
        5.6820178031921387e-01 -5.2792823314666748e-01</leafValues></_>
    <_>
      <internalNodes>
        0 -1 119279 -4.1201654821634293e-02</internalNodes>
      <leafValues>
        6.8959164619445801e-01 -4.5705991983413696e-01</leafValues></_>
    <_>
      <internalNodes>
        0 -1 163265 1.3919332996010780e-03</internalNodes>
      <leafValues>
        3.1721913814544678e-01 -9.4408804178237915e-01</leafValues></_></weakClassifiers></stage2>
</opencv_storage>
