<?xml version="1.0"?>
<opencv_storage>
<cascade>
  <stageType>BOOST</stageType>
  <featureType>HAAR</featureType>
  <height>24</height>
  <width>24</width>
  <stageParams>
    <boostType>GAB</boostType>
    <minHitRate>9.9500000476837158e-01</minHitRate>
    <maxFalseAlarm>5.0000000000000000e-01</maxFalseAlarm>
    <weightTrimRate>9.4999999999999996e-01</weightTrimRate>
    <maxDepth>1</maxDepth>
    <maxWeakCount>100</maxWeakCount></stageParams>
  <featureParams>
    <maxCatCount>0</maxCatCount>
    <featSize>1</featSize>
    <mode>BASIC</mode></featureParams>
  <stageNum>6</stageNum>
  <stages>
    <!-- stage 0 -->
    <_>
      <maxWeakCount>3</maxWeakCount>
      <stageThreshold>-8.5644823312759399e-01</stageThreshold>
      <weakClassifiers>
        <_>
          <internalNodes>
            0 -1 15 -1.6419234871864319e-01</internalNodes>
          <leafValues>
            8.8251554965972900e-01 -9.4382852315902710e-01</leafValues></_>
        <_>
          <internalNodes>
            0 -1 12 -3.6162304878234863e-01</internalNodes>
          <leafValues>
            9.2290449142456055e-01 -5.9189260005950928e-01</leafValues></_>
        <_>
          <internalNodes>
            0 -1 11 6.3094226643443108e-03</internalNodes>
          <leafValues>
            -7.6628386974334717e-01 6.7927294969558716e-01</leafValues></_></weakClassifiers></_>
    <!-- stage 1 -->
    <_>
      <maxWeakCount>6</maxWeakCount>
      <stageThreshold>-1.6421453952789307e+00</stageThreshold>
      <weakClassifiers>
        <_>
          <internalNodes>
            0 -1 14 -3.5986530780792236e-01</internalNodes>
          <leafValues>
            8.4206640720367432e-01 -7.8961938619613647e-01</leafValues></_>
        <_>
          <internalNodes>
            0 -1 6 -1.0105130076408386e-01</internalNodes>
          <leafValues>
            7.1965980529785156e-01 -5.8933448791503906e-01</leafValues></_>
        <_>
          <internalNodes>
            0 -1 24 -1.2528724968433380e-01</internalNodes>
          <leafValues>
            5.1773625612258911e-01 -8.0514526367187500e-01</leafValues></_>
        <_>
          <internalNodes>
            0 -1 23 1.2240796349942684e-03</internalNodes>
          <leafValues>
            -7.9971832036972046e-01 3.5496741533279419e-01</leafValues></_>
        <_>
          <internalNodes>
            0 -1 19 -3.7145897746086121e-01</internalNodes>
          <leafValues>
            9.5612972974777222e-01 -3.2314592599868774e-01</leafValues></_>
        <_>
          <internalNodes>
            0 -1 2 -5.8152988553047180e-02</internalNodes>
          <leafValues>
            5.1013231277465820e-01 -6.7016077041625977e-01</leafValues></_></weakClassifiers></_>
    <!-- stage 2 -->
    <_>
      <maxWeakCount>6</maxWeakCount>
      <stageThreshold>-1.3883917331695557e+00</stageThreshold>
      <weakClassifiers>
        <_>
          <internalNodes>
            0 -1 12 -3.6703932285308838e-01</internalNodes>
          <leafValues>
            8.2282519340515137e-01 -6.6645121574401855e-01</leafValues></_>
        <_>
          <internalNodes>
            0 -1 4 -1.3290521502494812e-01</internalNodes>
          <leafValues>
            4.8778721690177917e-01 -5.7980257272720337e-01</leafValues></_>
        <_>
          <internalNodes>
            0 -1 30 -8.8701568543910980e-02</internalNodes>
          <leafValues>
            4.1341066360473633e-01 -7.9858720302581787e-01</leafValues></_>
        <_>
          <internalNodes>
            0 -1 10 7.1511296555399895e-03</internalNodes>
          <leafValues>
            -7.1334105730056763e-01 3.7484490871429443e-01</leafValues></_>
        <_>
          <internalNodes>
            0 -1 17 -3.4580489993095398e-01</internalNodes>
          <leafValues>
            7.3794710636138916e-01 -4.2008894681930542e-01</leafValues></_>
        <_>
          <internalNodes>
            0 -1 21 -1.0355223901569843e-02</internalNodes>
          <leafValues>
            7.0169335603713989e-01 -4.1254454851150513e-01</leafValues></_></weakClassifiers></_>
    <!-- stage 3 -->
    <_>
      <maxWeakCount>5</maxWeakCount>
      <stageThreshold>-1.0496277809143066e+00</stageThreshold>
      <weakClassifiers>
        <_>
          <internalNodes>
            0 -1 22 -3.4845262765884399e-01</internalNodes>
          <leafValues>
            7.2655564546585083e-01 -4.9969860911369324e-01</leafValues></_>
        <_>
          <internalNodes>
            0 -1 0 -1.0023020207881927e-01</internalNodes>
          <leafValues>
            5.3852641582489014e-01 -7.6824373006820679e-01</leafValues></_>
        <_>
          <internalNodes>
            0 -1 5 -1.3133430853486061e-02</internalNodes>
          <leafValues>
            3.3154061436653137e-01 -7.6968294382095337e-01</leafValues></_>
        <_>
          <internalNodes>
            0 -1 13 -3.4369477629661560e-01</internalNodes>
          <leafValues>
            4.7672203183174133e-01 -4.9983239173889160e-01</leafValues></_>
        <_>
          <internalNodes>
            0 -1 25 3.9690975099802017e-03</internalNodes>
          <leafValues>
            -7.3777526617050171e-01 3.8660633563995361e-01</leafValues></_></weakClassifiers></_>
    <!-- stage 4 -->
    <_>
      <maxWeakCount>6</maxWeakCount>
      <stageThreshold>-3.7887188792228699e-01</stageThreshold>
      <weakClassifiers>
        <_>
          <internalNodes>
            0 -1 20 -3.4614253044128418e-01</internalNodes>
          <leafValues>
            7.1198713779449463e-01 -5.6840080022811890e-01</leafValues></_>
        <_>
          <internalNodes>
            0 -1 3 -3.3672239631414413e-02</internalNodes>
          <leafValues>
            3.4638649225234985e-01 -6.9862681627273560e-01</leafValues></_>
        <_>
          <internalNodes>
            0 -1 31 -1.5838595572859049e-03</internalNodes>
          <leafValues>
            -8.9294672012329102e-01 2.1374958753585815e-01</leafValues></_>
        <_>
          <internalNodes>
            0 -1 29 -1.6439968021586537e-03</internalNodes>
          <leafValues>
            -8.5973542928695679e-01 2.0339033007621765e-01</leafValues></_>
        <_>
          <internalNodes>
            0 -1 27 -1.9988939166069031e-03</internalNodes>
          <leafValues>
            -9.0187513828277588e-01 2.0549662411212921e-01</leafValues></_>
        <_>
          <internalNodes>
            0 -1 9 -7.9667940735816956e-04</internalNodes>
          <leafValues>
            3.2787758111953735e-01 -6.2478232383728027e-01</leafValues></_></weakClassifiers></_>
    <!-- stage 5 -->
    <_>
      <maxWeakCount>8</maxWeakCount>
      <stageThreshold>-9.2736536264419556e-01</stageThreshold>
      <weakClassifiers>
        <_>
          <internalNodes>
            0 -1 18 -3.5398119688034058e-01</internalNodes>
          <leafValues>
            7.3404252529144287e-01 -4.9521529674530029e-01</leafValues></_>
        <_>
          <internalNodes>
            0 -1 16 1.3554771430790424e-03</internalNodes>
          <leafValues>
            -7.3409980535507202e-01 3.2326188683509827e-01</leafValues></_>
        <_>
          <internalNodes>
            0 -1 26 -9.3065359396860003e-04</internalNodes>
          <leafValues>
            -8.6375027894973755e-01 2.3407885432243347e-01</leafValues></_>
        <_>
          <internalNodes>
            0 -1 28 -1.1052412446588278e-03</internalNodes>
          <leafValues>
            -8.6111217737197876e-01 2.0744079351425171e-01</leafValues></_>
        <_>
          <internalNodes>
            0 -1 8 -2.3538004606962204e-03</internalNodes>
          <leafValues>
            2.3332561552524567e-01 -8.2720702886581421e-01</leafValues></_>
        <_>
          <internalNodes>
            0 -1 1 1.5661567449569702e-02</internalNodes>
          <leafValues>
            -2.9557645320892334e-01 8.3472722768783569e-01</leafValues></_>
        <_>
          <internalNodes>
            0 -1 32 1.0115101467818022e-03</internalNodes>
          <leafValues>
            -6.1043131351470947e-01 3.7519499659538269e-01</leafValues></_>
        <_>
          <internalNodes>
            0 -1 7 -1.1294953525066376e-01</internalNodes>
          <leafValues>
            6.1920988559722900e-01 -3.8624599575996399e-01</leafValues></_></weakClassifiers></_></stages>
  <features>
    <_>
      <rects>
        <_>
          0 0 22 17 -1.</_>
        <_>
          11 0 11 17 2.</_></rects>
      <tilted>0</tilted></_>
    <_>
      <rects>
        <_>
          0 0 23 2 -1.</_>
        <_>
          0 1 23 1 2.</_></rects>
      <tilted>0</tilted></_>
    <_>
      <rects>
        <_>
          0 2 24 7 -1.</_>
        <_>
          12 2 12 7 2.</_></rects>
      <tilted>0</tilted></_>
    <_>
      <rects>
        <_>
          0 3 14 14 -1.</_>
        <_>
          7 3 7 14 2.</_></rects>
      <tilted>0</tilted></_>
    <_>
      <rects>
        <_>
          0 3 22 15 -1.</_>
        <_>
          11 3 11 15 2.</_></rects>
      <tilted>0</tilted></_>
    <_>
      <rects>
        <_>
          0 4 8 20 -1.</_>
        <_>
          4 4 4 20 2.</_></rects>
      <tilted>0</tilted></_>
    <_>
      <rects>
        <_>
          0 4 14 18 -1.</_>
        <_>
          7 4 7 18 2.</_></rects>
      <tilted>0</tilted></_>
    <_>
      <rects>
        <_>
          0 14 16 8 -1.</_>
        <_>
          8 14 8 8 2.</_></rects>
      <tilted>0</tilted></_>
    <_>
      <rects>
        <_>
          0 16 17 6 -1.</_>
        <_>
          0 19 17 3 2.</_></rects>
      <tilted>0</tilted></_>
    <_>
      <rects>
        <_>
          0 19 2 5 -1.</_>
        <_>
          1 19 1 5 2.</_></rects>
      <tilted>0</tilted></_>
    <_>
      <rects>
        <_>
          0 22 24 2 -1.</_>
        <_>
          0 23 24 1 2.</_></rects>
      <tilted>0</tilted></_>
    <_>
      <rects>
        <_>
          2 22 21 2 -1.</_>
        <_>
          2 23 21 1 2.</_></rects>
      <tilted>0</tilted></_>
    <_>
      <rects>
        <_>
          3 5 18 18 -1.</_>
        <_>
          3 14 18 9 2.</_></rects>
      <tilted>0</tilted></_>
    <_>
      <rects>
        <_>
          4 4 15 20 -1.</_>
        <_>
          4 14 15 10 2.</_></rects>
      <tilted>0</tilted></_>
    <_>
      <rects>
        <_>
          4 4 19 20 -1.</_>
        <_>
          4 14 19 10 2.</_></rects>
      <tilted>0</tilted></_>
    <_>
      <rects>
        <_>
          5 7 14 16 -1.</_>
        <_>
          5 15 14 8 2.</_></rects>
      <tilted>0</tilted></_>
    <_>
      <rects>
        <_>
          5 22 7 2 -1.</_>
        <_>
          5 23 7 1 2.</_></rects>
      <tilted>0</tilted></_>
    <_>
      <rects>
        <_>
          6 2 11 22 -1.</_>
        <_>
          6 13 11 11 2.</_></rects>
      <tilted>0</tilted></_>
    <_>
      <rects>
        <_>
          6 6 17 16 -1.</_>
        <_>
          6 14 17 8 2.</_></rects>
      <tilted>0</tilted></_>
    <_>
      <rects>
        <_>
          7 2 13 20 -1.</_>
        <_>
          7 12 13 10 2.</_></rects>
      <tilted>0</tilted></_>
    <_>
      <rects>
        <_>
          7 3 13 20 -1.</_>
        <_>
          7 13 13 10 2.</_></rects>
      <tilted>0</tilted></_>
    <_>
      <rects>
        <_>
          8 0 16 2 -1.</_>
        <_>
          8 1 16 1 2.</_></rects>
      <tilted>0</tilted></_>
    <_>
      <rects>
        <_>
          8 3 12 20 -1.</_>
        <_>
          8 13 12 10 2.</_></rects>
      <tilted>0</tilted></_>
    <_>
      <rects>
        <_>
          8 22 4 2 -1.</_>
        <_>
          8 23 4 1 2.</_></rects>
      <tilted>0</tilted></_>
    <_>
      <rects>
        <_>
          10 7 11 16 -1.</_>
        <_>
          10 15 11 8 2.</_></rects>
      <tilted>0</tilted></_>
    <_>
      <rects>
        <_>
          10 22 11 2 -1.</_>
        <_>
          10 23 11 1 2.</_></rects>
      <tilted>0</tilted></_>
    <_>
      <rects>
        <_>
          11 22 3 2 -1.</_>
        <_>
          12 22 1 2 3.</_></rects>
      <tilted>0</tilted></_>
    <_>
      <rects>
        <_>
          12 20 3 4 -1.</_>
        <_>
          13 20 1 4 3.</_></rects>
      <tilted>0</tilted></_>
    <_>
      <rects>
        <_>
          13 18 3 3 -1.</_>
        <_>
          14 18 1 3 3.</_></rects>
      <tilted>0</tilted></_>
    <_>
      <rects>
        <_>
          13 20 3 4 -1.</_>
        <_>
          14 20 1 4 3.</_></rects>
      <tilted>0</tilted></_>
    <_>
      <rects>
        <_>
          14 6 7 18 -1.</_>
        <_>
          14 15 7 9 2.</_></rects>
      <tilted>0</tilted></_>
    <_>
      <rects>
        <_>
          14 20 3 4 -1.</_>
        <_>
          15 20 1 4 3.</_></rects>
      <tilted>0</tilted></_>
    <_>
      <rects>
        <_>
          17 22 3 2 -1.</_>
        <_>
          17 23 3 1 2.</_></rects>
      <tilted>0</tilted></_></features></cascade>
</opencv_storage>
